digraph Tree {
node [shape=box, style="filled, rounded", color="black", fontname=helvetica] ;
edge [fontname=helvetica] ;
0 [label="reviews_from_critics <= 10.5\nmse = 0.475\nsamples = 310\nvalue = 6.547", fillcolor="#f0b78f"] ;
1 [label="duration <= 86.5\nmse = 0.341\nsamples = 207\nvalue = 6.294", fillcolor="#f2c2a0"] ;
0 -> 1 [labeldistance=2.5, labelangle=45, headlabel="True"] ;
2 [label="year <= 1933.0\nmse = 0.382\nsamples = 131\nvalue = 6.164", fillcolor="#f4c8a9"] ;
1 -> 2 ;
3 [label="reviews_from_critics <= 2.5\nmse = 0.349\nsamples = 129\nvalue = 6.138", fillcolor="#f4c9ab"] ;
2 -> 3 ;
4 [label="Adventure <= 0.5\nmse = 0.391\nsamples = 36\nvalue = 5.863", fillcolor="#f6d5bd"] ;
3 -> 4 ;
5 [label="mse = 0.315\nsamples = 34\nvalue = 5.93", fillcolor="#f6d2b9"] ;
4 -> 5 ;
6 [label="mse = 0.5\nsamples = 2\nvalue = 4.9", fillcolor="#ffffff"] ;
4 -> 6 ;
7 [label="year <= 1926.5\nmse = 0.288\nsamples = 93\nvalue = 6.251", fillcolor="#f3c4a3"] ;
3 -> 7 ;
8 [label="mse = 0.274\nsamples = 48\nvalue = 6.41", fillcolor="#f1bd98"] ;
7 -> 8 ;
9 [label="mse = 0.236\nsamples = 45\nvalue = 6.058", fillcolor="#f5cdb0"] ;
7 -> 9 ;
10 [label="year <= 1936.0\nmse = 0.109\nsamples = 2\nvalue = 7.567", fillcolor="#e78b49"] ;
2 -> 10 ;
11 [label="mse = 0.0\nsamples = 1\nvalue = 7.1", fillcolor="#eb9f69"] ;
10 -> 11 ;
12 [label="mse = -0.0\nsamples = 1\nvalue = 7.8", fillcolor="#e58139"] ;
10 -> 12 ;
13 [label="Mystery <= 0.5\nmse = 0.206\nsamples = 76\nvalue = 6.5", fillcolor="#f1b992"] ;
1 -> 13 ;
14 [label="year <= 1929.5\nmse = 0.157\nsamples = 75\nvalue = 6.532", fillcolor="#f0b890"] ;
13 -> 14 ;
15 [label="reviews_from_critics <= 3.5\nmse = 0.134\nsamples = 69\nvalue = 6.572", fillcolor="#f0b68d"] ;
14 -> 15 ;
16 [label="mse = 0.14\nsamples = 28\nvalue = 6.454", fillcolor="#f1bb95"] ;
15 -> 16 ;
17 [label="mse = 0.116\nsamples = 41\nvalue = 6.644", fillcolor="#efb388"] ;
15 -> 17 ;
18 [label="reviews_from_critics <= 4.5\nmse = 0.178\nsamples = 6\nvalue = 6.014", fillcolor="#f5cfb3"] ;
14 -> 18 ;
19 [label="mse = 0.128\nsamples = 4\nvalue = 6.2", fillcolor="#f3c7a6"] ;
18 -> 19 ;
20 [label="mse = 0.002\nsamples = 2\nvalue = 5.55", fillcolor="#f9e3d3"] ;
18 -> 20 ;
21 [label="mse = 0.0\nsamples = 1\nvalue = 4.9", fillcolor="#ffffff"] ;
13 -> 21 ;
22 [label="reviews_from_critics <= 42.5\nmse = 0.383\nsamples = 103\nvalue = 7.022", fillcolor="#eca36e"] ;
0 -> 22 [labeldistance=2.5, labelangle=-45, headlabel="False"] ;
23 [label="Romance <= 0.5\nmse = 0.303\nsamples = 81\nvalue = 6.866", fillcolor="#edaa79"] ;
22 -> 23 ;
24 [label="duration <= 66.5\nmse = 0.273\nsamples = 66\nvalue = 6.763", fillcolor="#eeae80"] ;
23 -> 24 ;
25 [label="year <= 1918.0\nmse = 0.128\nsamples = 11\nvalue = 7.131", fillcolor="#eb9e67"] ;
24 -> 25 ;
26 [label="mse = 0.095\nsamples = 4\nvalue = 6.7", fillcolor="#efb184"] ;
25 -> 26 ;
27 [label="mse = 0.024\nsamples = 7\nvalue = 7.322", fillcolor="#e9965a"] ;
25 -> 27 ;
28 [label="Drama <= 0.5\nmse = 0.27\nsamples = 55\nvalue = 6.701", fillcolor="#efb184"] ;
24 -> 28 ;
29 [label="mse = 0.159\nsamples = 15\nvalue = 6.409", fillcolor="#f1bd98"] ;
28 -> 29 ;
30 [label="mse = 0.266\nsamples = 40\nvalue = 6.826", fillcolor="#eeab7c"] ;
28 -> 30 ;
31 [label="reviews_from_critics <= 11.5\nmse = 0.162\nsamples = 15\nvalue = 7.353", fillcolor="#e99458"] ;
23 -> 31 ;
32 [label="mse = 0.0\nsamples = 1\nvalue = 6.5", fillcolor="#f1b992"] ;
31 -> 32 ;
33 [label="year <= 1927.5\nmse = 0.129\nsamples = 14\nvalue = 7.4", fillcolor="#e99254"] ;
31 -> 33 ;
34 [label="mse = 0.102\nsamples = 11\nvalue = 7.258", fillcolor="#ea995e"] ;
33 -> 34 ;
35 [label="mse = 0.061\nsamples = 3\nvalue = 7.683", fillcolor="#e68641"] ;
33 -> 35 ;
36 [label="Music <= 0.5\nmse = 0.26\nsamples = 22\nvalue = 7.59", fillcolor="#e78a47"] ;
22 -> 36 ;
37 [label="year <= 1917.0\nmse = 0.187\nsamples = 21\nvalue = 7.668", fillcolor="#e68742"] ;
36 -> 37 ;
38 [label="mse = 0.0\nsamples = 1\nvalue = 6.3", fillcolor="#f2c29f"] ;
37 -> 38 ;
39 [label="Crime <= 0.5\nmse = 0.122\nsamples = 20\nvalue = 7.719", fillcolor="#e6853f"] ;
37 -> 39 ;
40 [label="mse = 0.114\nsamples = 17\nvalue = 7.783", fillcolor="#e5823a"] ;
39 -> 40 ;
41 [label="mse = 0.007\nsamples = 3\nvalue = 7.35", fillcolor="#e99558"] ;
39 -> 41 ;
42 [label="mse = 0.0\nsamples = 1\nvalue = 6.5", fillcolor="#f1b992"] ;
36 -> 42 ;
}