digraph Tree {
node [shape=box, style="filled, rounded", color="black", fontname=helvetica] ;
edge [fontname=helvetica] ;
0 [label="reviews_from_critics <= 5.5\nmse = 0.553\nsamples = 315\nvalue = 6.555", fillcolor="#f3c6a5"] ;
1 [label="duration <= 100.5\nmse = 0.426\nsamples = 144\nvalue = 6.144", fillcolor="#f7d6be"] ;
0 -> 1 [labeldistance=2.5, labelangle=45, headlabel="True"] ;
2 [label="duration <= 51.0\nmse = 0.395\nsamples = 121\nvalue = 6.023", fillcolor="#f8dbc6"] ;
1 -> 2 ;
3 [label="duration <= 48.0\nmse = 0.074\nsamples = 6\nvalue = 6.63", fillcolor="#f3c3a0"] ;
2 -> 3 ;
4 [label="year <= 1952.0\nmse = 0.003\nsamples = 2\nvalue = 6.95", fillcolor="#f0b68d"] ;
3 -> 4 ;
5 [label="mse = 0.0\nsamples = 1\nvalue = 6.9", fillcolor="#f0b890"] ;
4 -> 5 ;
6 [label="mse = 0.0\nsamples = 1\nvalue = 7.0", fillcolor="#f0b489"] ;
4 -> 6 ;
7 [label="year <= 1918.5\nmse = 0.008\nsamples = 4\nvalue = 6.417", fillcolor="#f4cbae"] ;
3 -> 7 ;
8 [label="mse = 0.0\nsamples = 2\nvalue = 6.5", fillcolor="#f4c8a8"] ;
7 -> 8 ;
9 [label="mse = 0.002\nsamples = 2\nvalue = 6.333", fillcolor="#f5ceb3"] ;
7 -> 9 ;
10 [label="duration <= 95.5\nmse = 0.389\nsamples = 115\nvalue = 5.979", fillcolor="#f8dcc9"] ;
2 -> 10 ;
11 [label="duration <= 71.5\nmse = 0.378\nsamples = 112\nvalue = 6.009", fillcolor="#f8dbc7"] ;
10 -> 11 ;
12 [label="mse = 0.36\nsamples = 49\nvalue = 5.812", fillcolor="#f9e3d3"] ;
11 -> 12 ;
13 [label="mse = 0.338\nsamples = 63\nvalue = 6.164", fillcolor="#f6d5bd"] ;
11 -> 13 ;
14 [label="reviews_from_critics <= 3.5\nmse = 0.034\nsamples = 3\nvalue = 5.18", fillcolor="#fefcfa"] ;
10 -> 14 ;
15 [label="mse = 0.01\nsamples = 2\nvalue = 5.1", fillcolor="#ffffff"] ;
14 -> 15 ;
16 [label="mse = 0.0\nsamples = 1\nvalue = 5.5", fillcolor="#fcefe6"] ;
14 -> 16 ;
17 [label="duration <= 153.0\nmse = 0.172\nsamples = 23\nvalue = 6.719", fillcolor="#f2bf9b"] ;
1 -> 17 ;
18 [label="Musical <= 0.5\nmse = 0.135\nsamples = 19\nvalue = 6.557", fillcolor="#f3c6a5"] ;
17 -> 18 ;
19 [label="year <= 1920.5\nmse = 0.079\nsamples = 15\nvalue = 6.667", fillcolor="#f2c19e"] ;
18 -> 19 ;
20 [label="mse = 0.25\nsamples = 2\nvalue = 6.2", fillcolor="#f6d4bb"] ;
19 -> 20 ;
21 [label="mse = 0.027\nsamples = 13\nvalue = 6.725", fillcolor="#f2bf9a"] ;
19 -> 21 ;
22 [label="duration <= 102.5\nmse = 0.134\nsamples = 4\nvalue = 6.16", fillcolor="#f6d5bd"] ;
18 -> 22 ;
23 [label="mse = 0.0\nsamples = 1\nvalue = 6.7", fillcolor="#f2c09c"] ;
22 -> 23 ;
24 [label="mse = 0.077\nsamples = 3\nvalue = 6.025", fillcolor="#f7dbc6"] ;
22 -> 24 ;
25 [label="Romance <= 0.5\nmse = 0.027\nsamples = 4\nvalue = 7.133", fillcolor="#eeaf81"] ;
17 -> 25 ;
26 [label="Drama <= 0.5\nmse = 0.008\nsamples = 3\nvalue = 7.0", fillcolor="#f0b489"] ;
25 -> 26 ;
27 [label="mse = 0.002\nsamples = 2\nvalue = 7.067", fillcolor="#efb285"] ;
26 -> 27 ;
28 [label="mse = 0.0\nsamples = 1\nvalue = 6.9", fillcolor="#f0b890"] ;
26 -> 28 ;
29 [label="mse = -0.0\nsamples = 1\nvalue = 7.3", fillcolor="#eda877"] ;
25 -> 29 ;
30 [label="reviews_from_critics <= 37.5\nmse = 0.399\nsamples = 171\nvalue = 6.901", fillcolor="#f0b890"] ;
0 -> 30 [labeldistance=2.5, labelangle=-45, headlabel="False"] ;
31 [label="Drama <= 0.5\nmse = 0.275\nsamples = 143\nvalue = 6.738", fillcolor="#f2be9a"] ;
30 -> 31 ;
32 [label="duration <= 69.5\nmse = 0.277\nsamples = 43\nvalue = 6.517", fillcolor="#f3c7a7"] ;
31 -> 32 ;
33 [label="year <= 1917.5\nmse = 0.24\nsamples = 13\nvalue = 6.841", fillcolor="#f1ba93"] ;
32 -> 33 ;
34 [label="mse = 0.123\nsamples = 2\nvalue = 6.35", fillcolor="#f5ceb2"] ;
33 -> 34 ;
35 [label="mse = 0.179\nsamples = 11\nvalue = 6.992", fillcolor="#f0b48a"] ;
33 -> 35 ;
36 [label="year <= 1926.5\nmse = 0.221\nsamples = 30\nvalue = 6.364", fillcolor="#f5cdb1"] ;
32 -> 36 ;
37 [label="mse = 0.118\nsamples = 13\nvalue = 6.65", fillcolor="#f2c29f"] ;
36 -> 37 ;
38 [label="mse = 0.201\nsamples = 17\nvalue = 6.182", fillcolor="#f6d4bc"] ;
36 -> 38 ;
39 [label="duration <= 108.5\nmse = 0.246\nsamples = 100\nvalue = 6.828", fillcolor="#f1bb94"] ;
31 -> 39 ;
40 [label="Musical <= 0.5\nmse = 0.253\nsamples = 82\nvalue = 6.744", fillcolor="#f2be99"] ;
39 -> 40 ;
41 [label="mse = 0.236\nsamples = 79\nvalue = 6.763", fillcolor="#f1be98"] ;
40 -> 41 ;
42 [label="mse = 0.407\nsamples = 3\nvalue = 6.1", fillcolor="#f7d8c1"] ;
40 -> 42 ;
43 [label="reviews_from_critics <= 30.0\nmse = 0.088\nsamples = 18\nvalue = 7.152", fillcolor="#eeae80"] ;
39 -> 43 ;
44 [label="mse = 0.056\nsamples = 17\nvalue = 7.188", fillcolor="#eead7e"] ;
43 -> 44 ;
45 [label="mse = -0.0\nsamples = 1\nvalue = 6.2", fillcolor="#f6d4bb"] ;
43 -> 45 ;
46 [label="reviews_from_critics <= 80.0\nmse = 0.155\nsamples = 28\nvalue = 7.776", fillcolor="#e99659"] ;
30 -> 46 ;
47 [label="reviews_from_critics <= 59.0\nmse = 0.151\nsamples = 20\nvalue = 7.65", fillcolor="#ea9b61"] ;
46 -> 47 ;
48 [label="year <= 1918.0\nmse = 0.066\nsamples = 13\nvalue = 7.813", fillcolor="#e99457"] ;
47 -> 48 ;
49 [label="mse = 0.0\nsamples = 1\nvalue = 7.3", fillcolor="#eda877"] ;
48 -> 49 ;
50 [label="mse = 0.051\nsamples = 12\nvalue = 7.85", fillcolor="#e99355"] ;
48 -> 50 ;
51 [label="Comedy <= 0.5\nmse = 0.173\nsamples = 7\nvalue = 7.378", fillcolor="#eca572"] ;
47 -> 51 ;
52 [label="mse = 0.077\nsamples = 5\nvalue = 7.2", fillcolor="#eeac7d"] ;
51 -> 52 ;
53 [label="mse = 0.01\nsamples = 2\nvalue = 8.0", fillcolor="#e78d4c"] ;
51 -> 53 ;
54 [label="year <= 1924.5\nmse = 0.034\nsamples = 8\nvalue = 8.08", fillcolor="#e78a47"] ;
46 -> 54 ;
55 [label="duration <= 71.0\nmse = 0.008\nsamples = 5\nvalue = 8.157", fillcolor="#e68742"] ;
54 -> 55 ;
56 [label="mse = 0.0\nsamples = 1\nvalue = 8.3", fillcolor="#e58139"] ;
55 -> 56 ;
57 [label="mse = 0.0\nsamples = 4\nvalue = 8.1", fillcolor="#e78945"] ;
55 -> 57 ;
58 [label="year <= 1926.0\nmse = 0.047\nsamples = 3\nvalue = 7.9", fillcolor="#e89152"] ;
54 -> 58 ;
59 [label="mse = 0.0\nsamples = 1\nvalue = 7.6", fillcolor="#eb9d64"] ;
58 -> 59 ;
60 [label="mse = 0.002\nsamples = 2\nvalue = 8.05", fillcolor="#e78b48"] ;
58 -> 60 ;
}