digraph {
	0 [label="reviews_from_critics <= 10.5\nmse = 0.526\nsamples = 304\nvalue = 6.514" fillcolor=red style=filled]
	1 [label="year <= 1928.5\nmse = 0.358\nsamples = 212\nvalue = 6.253" fillcolor="#f4cbad" style=filled]
	2 [label="reviews_from_critics <= 3.5\nmse = 0.282\nsamples = 145\nvalue = 6.415" fillcolor="#f3c4a3" style=filled]
	3 [label="year <= 1927.5\nmse = 0.273\nsamples = 67\nvalue = 6.2" fillcolor="#f5cdb0" style=filled]
	4 [label="year <= 1914.5\nmse = 0.263\nsamples = 60\nvalue = 6.153" fillcolor="#f5cfb3" style=filled]
	5 [label="mse = 0.042\nsamples = 3\nvalue = 5.467" fillcolor="#fae9dd" style=filled]
	6 [label="mse = 0.252\nsamples = 57\nvalue = 6.181" fillcolor="#f5cdb1" style=filled]
	7 [label="duration <= 95.0\nmse = 0.148\nsamples = 7\nvalue = 6.65" fillcolor="#f1bb95" style=filled]
	8 [label="mse = 0.192\nsamples = 4\nvalue = 6.475" fillcolor="#f2c29f" style=filled]
	9 [label="mse = 0.042\nsamples = 3\nvalue = 6.825" fillcolor="#f0b58a" style=filled]
	10 [label="Mystery <= 0.5\nmse = 0.217\nsamples = 78\nvalue = 6.6" fillcolor="#f1bd98" style=filled]
	11 [label="duration <= 69.5\nmse = 0.178\nsamples = 76\nvalue = 6.634" fillcolor="#f1bc96" style=filled]
	12 [label="mse = 0.308\nsamples = 22\nvalue = 6.407" fillcolor="#f3c5a3" style=filled]
	13 [label="mse = 0.088\nsamples = 54\nvalue = 6.733" fillcolor="#f0b890" style=filled]
	14 [label="year <= 1918.0\nmse = 0.48\nsamples = 2\nvalue = 5.8" fillcolor="#f8dcc8" style=filled]
	15 [label="mse = 0.0\nsamples = 1\nvalue = 7.0" fillcolor="#eeae7f" style=filled]
	16 [label="mse = -0.0\nsamples = 1\nvalue = 5.4" fillcolor="#fbece1" style=filled]
	17 [label="duration <= 79.5\nmse = 0.356\nsamples = 67\nvalue = 5.945" fillcolor="#f7d7c0" style=filled]
	18 [label="reviews_from_critics <= 2.5\nmse = 0.269\nsamples = 36\nvalue = 5.704" fillcolor="#f9e0ce" style=filled]
	19 [label="duration <= 73.5\nmse = 0.237\nsamples = 16\nvalue = 5.432" fillcolor="#fbeadf" style=filled]
	20 [label="mse = 0.101\nsamples = 11\nvalue = 5.224" fillcolor="#fcf2eb" style=filled]
	21 [label="mse = 0.237\nsamples = 5\nvalue = 5.875" fillcolor="#f7d9c4" style=filled]
	22 [label="Music <= 0.5\nmse = 0.16\nsamples = 20\nvalue = 5.965" fillcolor="#f7d6be" style=filled]
	23 [label="mse = 0.106\nsamples = 19\nvalue = 6.038" fillcolor="#f6d3ba" style=filled]
	24 [label="mse = -0.0\nsamples = 1\nvalue = 5.1" fillcolor="#fdf7f3" style=filled]
	25 [label="Mystery <= 0.5\nmse = 0.317\nsamples = 31\nvalue = 6.213" fillcolor="#f5ccaf" style=filled]
	26 [label="duration <= 117.0\nmse = 0.25\nsamples = 29\nvalue = 6.295" fillcolor="#f4c9aa" style=filled]
	27 [label="mse = 0.209\nsamples = 28\nvalue = 6.245" fillcolor="#f4cbad" style=filled]
	28 [label="mse = 0.0\nsamples = 1\nvalue = 7.3" fillcolor="#eca26d" style=filled]
	29 [label="duration <= 92.5\nmse = 0.202\nsamples = 2\nvalue = 5.35" fillcolor="#fbeee4" style=filled]
	30 [label="mse = 0.0\nsamples = 1\nvalue = 4.9" fillcolor="#ffffff" style=filled]
	31 [label="mse = 0.0\nsamples = 1\nvalue = 5.8" fillcolor="#f8dcc8" style=filled]
	32 [label="reviews_from_critics <= 29.0\nmse = 0.381\nsamples = 92\nvalue = 7.13" fillcolor=red style=filled]
	33 [label="duration <= 99.5\nmse = 0.29\nsamples = 60\nvalue = 6.927" fillcolor=red style=filled]
	34 [label="Family <= 0.5\nmse = 0.273\nsamples = 40\nvalue = 6.767" fillcolor=red style=filled]
	35 [label="Drama <= 0.5\nmse = 0.222\nsamples = 39\nvalue = 6.8" fillcolor=red style=filled]
	36 [label="mse = 0.25\nsamples = 15\nvalue = 6.615" fillcolor="#f1bd97" style=filled]
	37 [label="mse = 0.164\nsamples = 24\nvalue = 6.923" fillcolor=red style=filled]
	38 [label="mse = -0.0\nsamples = 1\nvalue = 5.1" fillcolor="#fdf7f3" style=filled]
	39 [label="year <= 1923.0\nmse = 0.156\nsamples = 20\nvalue = 7.267" fillcolor="#eca46f" style=filled]
	40 [label="duration <= 120.5\nmse = 0.217\nsamples = 4\nvalue = 6.725" fillcolor="#f0b890" style=filled]
	41 [label="mse = 0.01\nsamples = 2\nvalue = 6.3" fillcolor="#f4c9aa" style=filled]
	42 [label="mse = 0.063\nsamples = 2\nvalue = 7.15" fillcolor="#eda876" style=filled]
	43 [label="reviews_from_critics <= 14.5\nmse = 0.074\nsamples = 16\nvalue = 7.375" fillcolor="#eb9f69" style=filled]
	44 [label="mse = 0.04\nsamples = 6\nvalue = 7.54" fillcolor="#ea995f" style=filled]
	45 [label="mse = 0.053\nsamples = 10\nvalue = 7.21" fillcolor="#eda673" style=filled]
	46 [label="Thriller <= 0.5\nmse = 0.346\nsamples = 32\nvalue = 7.477" fillcolor="#ea9b62" style=filled]
	47 [label="Mystery <= 0.5\nmse = 0.279\nsamples = 31\nvalue = 7.519" fillcolor="#ea9a60" style=filled]
	48 [label="reviews_from_critics <= 101.5\nmse = 0.228\nsamples = 30\nvalue = 7.573" fillcolor="#ea985d" style=filled]
	49 [label="mse = 0.204\nsamples = 25\nvalue = 7.492" fillcolor="#ea9b62" style=filled]
	50 [label="mse = 0.014\nsamples = 5\nvalue = 8.16" fillcolor="#e58139" style=filled]
	51 [label="mse = -0.0\nsamples = 1\nvalue = 6.4" fillcolor="#f3c5a4" style=filled]
	52 [label="mse = -0.0\nsamples = 1\nvalue = 5.7" fillcolor="#f9e0ce" style=filled]
	0 -> 1
	1 -> 2
	2 -> 3
	3 -> 4
	4 -> 5
	4 -> 6
	3 -> 7
	7 -> 8
	7 -> 9
	2 -> 10
	10 -> 11
	11 -> 12
	11 -> 13
	10 -> 14
	14 -> 15
	14 -> 16
	1 -> 17
	17 -> 18
	18 -> 19
	19 -> 20
	19 -> 21
	18 -> 22
	22 -> 23
	22 -> 24
	17 -> 25
	25 -> 26
	26 -> 27
	26 -> 28
	25 -> 29
	29 -> 30
	29 -> 31
	0 -> 32
	32 -> 33
	33 -> 34
	34 -> 35
	35 -> 36
	35 -> 37
	34 -> 38
	33 -> 39
	39 -> 40
	40 -> 41
	40 -> 42
	39 -> 43
	43 -> 44
	43 -> 45
	32 -> 46
	46 -> 47
	47 -> 48
	48 -> 49
	48 -> 50
	47 -> 51
	46 -> 52
}
